tree
num_class=1
label_index=0
max_feature_idx=146
objective=regression
sigmoid=-1
boost_from_average
feature_names=Column_0 Column_1 Column_2 Column_3 Column_4 Column_5 Column_6 Column_7 Column_8 Column_9 Column_10 Column_11 Column_12 Column_13 Column_14 Column_15 Column_16 Column_17 Column_18 Column_19 Column_20 Column_21 Column_22 Column_23 Column_24 Column_25 Column_26 Column_27 Column_28 Column_29 Column_30 Column_31 Column_32 Column_33 Column_34 Column_35 Column_36 Column_37 Column_38 Column_39 Column_40 Column_41 Column_42 Column_43 Column_44 Column_45 Column_46 Column_47 Column_48 Column_49 Column_50 Column_51 Column_52 Column_53 Column_54 Column_55 Column_56 Column_57 Column_58 Column_59 Column_60 Column_61 Column_62 Column_63 Column_64 Column_65 Column_66 Column_67 Column_68 Column_69 Column_70 Column_71 Column_72 Column_73 Column_74 Column_75 Column_76 Column_77 Column_78 Column_79 Column_80 Column_81 Column_82 Column_83 Column_84 Column_85 Column_86 Column_87 Column_88 Column_89 Column_90 Column_91 Column_92 Column_93 Column_94 Column_95 Column_96 Column_97 Column_98 Column_99 Column_100 Column_101 Column_102 Column_103 Column_104 Column_105 Column_106 Column_107 Column_108 Column_109 Column_110 Column_111 Column_112 Column_113 Column_114 Column_115 Column_116 Column_117 Column_118 Column_119 Column_120 Column_121 Column_122 Column_123 Column_124 Column_125 Column_126 Column_127 Column_128 Column_129 Column_130 Column_131 Column_132 Column_133 Column_134 Column_135 Column_136 Column_137 Column_138 Column_139 Column_140 Column_141 Column_142 Column_143 Column_144 Column_145 Column_146
feature_infos=[0.020867457613348961:4776.62841796875] [0:8191359.5] [1:26] [0:1.9635509252548218] [0:0.99999326467514038] [0:4.2364368438720703] [0.0071839080192148685:1] [0.0021688838023692369:0.97645598649978638] [0:1] [-8.1169233322143555:47.076553344726562] [-122.89866638183594:90.223121643066406] [0:2.5307896137237549] [0:0.99980610609054565] [0:1.5242239236831665] [0:0.41123995184898376] [0:1] [0:0.84143519401550293] [0:1] [0:0.74074071645736694] [0:0.89348381757736206] [0:1] [0.018947549164295197:4776.51025390625] [0:8191359.5] [1:26] [0:1.9635509252548218] [0:0.99999326467514038] [0:4.2364368438720703] [0.0071839080192148685:1] [0.0021688838023692369:0.97645598649978638] [0:1] [-8.1169233322143555:47.076553344726562] [-122.89866638183594:90.223129272460938] [0:2.5307896137237549] [0:0.99980610609054565] [0:1.5242239236831665] [0:0.41123995184898376] [0:1] [0:0.84143519401550293] [0:1] [0:0.74074071645736694] [0:0.89348381757736206] [0:1] [0.016514407470822334:4375.53759765625] [0:8191359.5] [1:26] [0:1.9635509252548218] [0:0.99999326467514038] [0:4.2364368438720703] [0.0071839080192148685:1] [0.00025773196830414236:0.97645598649978638] [0:1] [-8.1169233322143555:47.076553344726562] [-122.89866638183594:90.22320556640625] [0:2.5307896137237549] [0:0.99980610609054565] [0:1.5242239236831665] [0:0.41123995184898376] [0:1] [0:0.84143519401550293] [0:1] [0:0.74074071645736694] [0:0.89348381757736206] [0:1] [0.01383576262742281:4375.53759765625] [0:8191359.5] [1:26] [0:1.9635509252548218] [0:0.99999326467514038] [0:4.2364368438720703] [0.0071839080192148685:1] [0.00025773196830414236:0.97645598649978638] [0:1] [-8.1169233322143555:47.076553344726562] [-122.89866638183594:90.22332763671875] [0:2.5307896137237549] [0:0.99980610609054565] [0:1.5242239236831665] [0:0.41123995184898376] [0:1] [0:0.84143519401550293] [0:1] [0:0.74074071645736694] [0:0.89348381757736206] [0:1] [0:4375.53759765625] [0:8191359.5] [0:26] [0:1.9635509252548218] [0:0.99999326467514038] [0:4.2364368438720703] [0:1] [0:0.97645598649978638] [0:1] [-8.1169233322143555:47.076553344726562] [-122.89866638183594:90.22332763671875] [0:2.5307896137237549] [0:0.99980610609054565] [0:1.5242239236831665] [0:0.41628959774971008] [0.1285431832075119:1] [0:0.84143519401550293] [0:0.36170211434364319] [0:0.74074071645736694] [0:0.89348381757736206] [0:1] [0:4375.53759765625] [0:8191359.5] [0:26] [0:1.9635509252548218] [0:0.99999326467514038] [0:4.2364368438720703] [0:1] [0:0.98429036140441895] [0:1] [-8.1169233322143555:47.076553344726562] [-122.89938354492188:90.223365783691406] [0:2.5307896137237549] [0:0.99980610609054565] [0:1.5242239236831665] [0:0.41628959774971008] [0.1285431832075119:1] [0:0.84143519401550293] [0:0.36170211434364319] [0:0.74074071645736694] [0:0.89348381757736206] [0:1] [0:4375.53759765625] [0:8191359.5] [0:26] [0:1.9635509252548218] [0:0.99999326467514038] [0:4.2364368438720703] [0:1] [0:0.98429036140441895] [0:1] [-8.1169233322143555:47.076553344726562] [-122.89938354492188:90.223365783691406] [0:2.5307896137237549] [0:0.99980610609054565] [0:1.5242239236831665] [0:0.47179487347602844] [0.12267250567674637:1] [0:0.84143519401550293] [0:0.36170211434364319] [0:0.74074071645736694] [0:0.89348381757736206] [0:1]

Tree=0
num_leaves=2
split_feature=0
split_gain=1
threshold=0
decision_type=0
left_child=-1
right_child=-2
leaf_parent=0 0
leaf_value=0.51749174917491747 0.51749174917491747
leaf_count=0 3030
internal_value=0
internal_count=3030
shrinkage=1


Tree=1
num_leaves=17
split_feature=52 9 1 135 9 5 108 3 10 136 135 8 93 40 106 58
split_gain=75.891541755392694 43.843269535187915 24.462881041286167 22.652310189952047 21.549424819301649 22.188211189913321 20.43888459675609 17.062679234558299 14.921394319532023 35.084820330703209 26.359063229064148 13.909613326866971 3.7682608695652213 2.9225615763546813 0.78837154039698021 0.16190831411907425
threshold=-82.256954193115234 37.092185974121094 11.009899139404297 34.013286590576172 40.277685165405273 0.76119109988212585 0.16536901146173477 0.67127621173858643 -86.140422821044922 -92.988967895507812 44.964109420776367 0.29297371208667755 41.893491744995117 0.080578703433275223 4.8469371795654297 0.034532446414232254
decision_type=0 0 0 0 0 0 0 0 0 0 0 0 0 0 0 0
left_child=1 2 14 -2 -5 -6 -3 -4 9 10 13 -9 -11 -8 15 -1
right_child=3 6 7 4 5 -7 8 11 -10 12 -12 -13 -14 -15 -16 -17
leaf_parent=15 3 6 7 4 5 5 13 11 8 12 10 11 12 13 14 15
leaf_value=-0.023399340368733548 -0.0039233683812909008 0.01669684067794255 0.010408597947221942 0.024125412106513977 0.018199486180588052 -0.012874587893486023 -0.025874587893486026 0.0010122045593441657 -0.016628012551020269 0.024125412106513977 0.008298073977017574 -0.0225851142092755 0.010625412106513979 -0.013874587893486024 -0.019874587893486024 -0.025874587893486026
leaf_count=101 164 175 113 392 135 100 103 106 146 107 139 152 100 100 100 191
internal_value=0 -0.12496267030082885 -0.29992950361021847 0.25241974655505828 0.33896757227382018 0.099529518726024224 0.028485253624532414 -0.11587450719586601 -0.048427009668281611 0.027134835937201215 -0.16953854149545144 -0.25780183538910029 0.35207345952158386 -0.39926515688449876 -0.47412441093094493 -0.50036847019848762
internal_count=2424 1633 763 791 627 235 870 371 695 549 342 258 207 203 392 292
shrinkage=0.05


Tree=2
num_leaves=18
split_feature=52 9 1 135 72 68 48 127 7 10 10 72 63 129 19 4 0
split_gain=68.570653087445422 40.455386545132882 23.470441353703613 21.191362817041238 19.897812516763139 21.29850419132433 18.526692600045894 19.025427351013288 15.22904479907289 10.893326102445979 33.846762859599821 15.245956322176642 6.2359136573493004 0.74928326290337566 0.029398959607291886 0.000260195509724781 7.1054273576010019e-15
threshold=-82.285968780517578 37.092185974121094 11.009899139404297 34.013286590576172 40.242027282714844 0.76646775007247925 0.92455238103866577 1014.6439208984375 0.34257988631725311 -86.363845825195312 -91.845787048339844 44.964109420776367 8.4495882987976074 0.5166621208190918 0.108721062541008 0.032225372269749641 14.374157428741455
decision_type=0 0 0 0 0 0 0 0 0 0 0 0 0 0 0 0 0
left_child=1 2 13 -2 15 -6 7 9 -4 10 11 -3 -8 14 -1 -5 -17
right_child=3 6 8 4 5 -7 12 -9 -10 -11 -12 -13 -14 -15 -16 16 -18
leaf_parent=14 3 11 8 15 5 5 12 7 8 9 10 11 12 13 14 16 16
leaf_value=-0.024686925838337863 -0.0039804304041058183 -0.024289426092178591 0.0049524534226122489 0.023012429356575013 0.017481601117726633 -0.012915425479412081 0.020772950076139891 0.012999321168495549 -0.015366498721723862 -0.021859102485314856 0.016567654029202107 0.00075156888365745557 0.0041651429384946823 -0.019309522137783544 -0.023624848529696468 0.022919142246246339 0.022919142246246339
leaf_count=187 166 155 181 100 136 100 130 144 188 106 134 100 100 101 100 145 151
internal_value=0 -0.11955120219295755 -0.28855242829184236 0.2383587167301871 0.32187545077898833 0.092030102039797834 0.027668507999051427 -0.059931177814988093 -0.10799499675833436 -0.15299811634150418 -0.075559820874491201 -0.28938856124877932 0.27104328728240468 -0.46026812993066829 -0.48633728116646874 0.45885399194678878 0.45838284492492676
internal_count=2424 1626 757 798 632 236 869 639 369 495 389 255 230 388 287 396 296
shrinkage=0.05


Tree=3
num_leaves=18
split_feature=31 9 22 135 9 131 108 24 50 127 10 10 4 38 22 82 3
split_gain=61.860871180215703 36.281253873933636 21.361675947393337 19.608852479315502 17.659236120290011 19.085985642087614 16.946394885172236 14.414632179518399 13.98567392748623 13.718504169929057 12.530753248945192 25.439370860270472 14.154596160200018 0.46623536776655783 0.030830216520776332 0.00025785224762842063 2.6243891682042886e-07
threshold=-82.289649963378906 37.092185974121094 11.138205528259277 34.013286590576172 40.277685165405273 0.76146817207336426 0.16536901146173477 0.6569334864616394 0.33440883457660675 1014.6439208984375 -86.068939208984375 -91.845787048339844 0.34959511458873749 0.079256255179643631 0.73424524068832397 0.093252312391996384 0.1471220925450325
decision_type=0 0 0 0 0 0 0 0 0 0 0 0 0 0 0 0 0
left_child=1 2 13 -2 15 -6 -3 -4 -9 10 11 12 -8 14 -1 -5 -17
right_child=3 6 7 4 5 -7 9 8 -10 -11 -12 -13 -14 -15 -16 16 -18
leaf_parent=14 3 6 7 15 5 5 12 8 8 9 10 11 12 13 14 16 16
leaf_value=-0.022454386175263161 -0.0039154884879460594 0.015191347011498045 0.010438434403633403 0.02186497946083546 0.016757691149358399 -0.012062333479523658 0.0013055863976478576 0.0017973260805670141 -0.021666473139976633 0.01117312017083168 -0.020979100980541926 0.014000017400000507 -0.021374276348578386 -0.019536541839996421 -0.023587328022065229 0.021770044674377632 0.0217731848359108
leaf_count=102 167 175 107 100 135 100 125 113 145 150 110 157 153 143 146 101 195
internal_value=0 -0.11355180376716792 -0.27379500109051902 0.22639628774241397 0.30703957078951855 0.089877017634980225 0.025694009079330268 -0.099815248055000833 -0.22779385722422785 -0.044339462793130668 -0.11804639844719424 -0.041796011486272704 -0.2235299267357202 -0.43620576799068306 -0.46242720008857791 0.43591128793930767 0.43544226723748286
internal_count=2424 1626 756 798 631 235 870 365 258 695 545 435 278 391 248 396 296
shrinkage=0.05


Tree=4
num_leaves=19
split_feature=52 9 1 131 129 111 127 3 125 29 10 10 135 63 85 112 17 98
split_gain=55.863395686162335 32.958863280080031 19.277010062581688 18.585758014001094 25.274426777892419 15.457766120730129 14.645507332607592 13.796712613586742 12.531065642927565 12.469907606165773 9.6187933197364845 25.024166131505744 14.920760764409192 6.3176269998463788 0.65264849519512325 0.51315692111084843 0.084024427296036208 0.030412423307041081
threshold=-82.285968780517578 37.092185974121094 11.009899139404297 0.95877334475517273 0.5333787202835083 0.92475426197052002 1014.6439208984375 0.67127621173858643 0.42151495814323425 0.30561399459838867 -86.363845825195312 -91.845787048339844 44.964109420776367 8.664860725402832 4.0568902492523193 0.23118621110916138 0.071896377950906754 0.0040209305007010698
decision_type=0 0 0 0 0 0 0 0 0 0 0 0 0 0 0 0 0 0
left_child=1 2 14 8 -5 6 10 -4 -2 -9 11 12 -3 -7 17 -10 -17 -1
right_child=3 5 7 4 -6 13 -8 9 15 -11 -12 -13 -14 -15 -16 16 -18 -19
leaf_parent=17 8 12 7 4 4 13 6 9 15 9 10 11 12 13 14 16 16 17
leaf_value=-0.0213073345720768 0.0026748829637654129 -0.022742299345515721 0.0097114116349051489 -0.018058723996260337 0.012831383842377015 0.019543487265819812 0.011189601791316067 0.0018632047721799814 0.017615155072188846 -0.020540665159622828 -0.020313252891813006 0.013828721296960028 0.0022250263839960096 0.0029019036062873237 -0.01732337997853756 0.022770757743945491 0.021043858950757711 -0.022386561659105284
leaf_count=100 128 149 113 112 162 131 145 106 102 150 105 138 100 101 100 117 177 188
internal_value=0 -0.10790654641162573 -0.26044796830439348 0.2151423464144083 0.0040954083856875011 0.024974761267114426 -0.055514465274765876 -0.09681358012726636 0.32549895141415924 -0.22528125531971455 -0.13783040563992369 -0.064999298454871166 -0.25430521799857359 0.24597319793598404 -0.41606933231820764 0.41341856099439389 0.43462188369562837 -0.44023660063329673
internal_count=2424 1626 757 798 274 869 637 369 524 256 492 387 249 232 388 396 294 288
shrinkage=0.05


Tree=5
num_leaves=19
split_feature=52 9 10 85 87 115 73 51 114 9 71 103 113 9 6 59 145 85
split_gain=50.43796861026366 29.108440958375414 17.37223245053999 16.694828322573272 14.770348669450177 14.683703142601477 25.097440773471693 27.572673816879096 12.7022951493449 17.307741070553419 11.490738632026883 10.363643370747951 9.3596287796109738 5.9670304478803651 1.0489788147114609 0.8261415651441979 0.063968156932340037 0.063148315664840027
threshold=-82.256954193115234 37.092185974121094 -75.362556457519531 11.240593433380127 0.657379150390625 -121.72597503662109 -93.341213226318359 39.910196304321289 43.088211059570312 42.622081756591797 0.32225994765758514 0.099681712687015533 0.24377893656492233 39.889701843261719 0.80929288268089294 0.083031926304101944 0.10088541731238365 47.983381271362305
decision_type=0 0 0 0 0 0 0 0 0 0 0 0 0 0 0 0 0 0
left_child=1 3 11 15 -5 -3 13 -8 9 -9 -6 12 -2 -7 -13 16 -1 -16
right_child=2 5 -4 4 10 6 7 8 -10 -11 -12 14 -14 -15 17 -17 -18 -19
leaf_parent=16 12 5 2 4 10 13 7 9 8 9 10 14 12 13 17 15 16 17
leaf_value=-0.021552652982795767 -0.0059582890868186958 0.019182874575257303 -0.0045423051978968369 0.011798047886626556 0.0014753177762031556 -0.022897855667718528 0.021349625001873887 0.0047963655657238431 0.0095601798593997964 -0.022431299019986251 -0.019745255500078204 0.014450002410034142 0.014321168895923731 -0.0069285122014708439 0.019808895106499011 -0.016184059540990375 -0.019938654050230983 0.021329791262036282
leaf_count=159 100 100 158 101 111 116 171 108 130 127 150 101 132 118 195 142 100 105
internal_value=0 -0.1018724479670913 0.20578240293317138 -0.24443771689153748 -0.088752774326182199 0.023158931560900018 -0.023659063237054006 0.095628423977698856 -0.059613376039348236 -0.19836319101617692 -0.21440827983549271 0.27982237779698665 0.11160046427414336 -0.29689877754093236 0.37714777414935485 -0.38498123112759386 -0.41858974743533778 0.40682417521874109
internal_count=2424 1633 791 763 362 870 770 536 365 235 261 633 232 234 401 401 259 300
shrinkage=0.05


Tree=6
num_leaves=19
split_feature=10 30 135 30 131 17 90 127 127 136 73 144 50 105 80 105 103 131
split_gain=41.547174842360498 27.888656543264347 17.610100492287732 15.474706974060595 14.784016306746128 14.73244393482485 14.598756999496219 13.685344622014114 12.481142111690387 8.5187162610910843 16.446757508514107 7.3784099662823017 6.2495412740231195 3.5147778302369215 1.4766512585536233 0.16253653832324488 0.01846164720622312 0.0087010843238601865
threshold=-82.256954193115234 37.09233283996582 34.013286590576172 40.368053436279297 0.76146817207336426 0.075172014534473419 0.92261189222335815 1014.6439208984375 10.997493267059326 -93.343551635742188 -87.754611968994141 0.010003573726862669 0.37701223790645599 7.6615889072418213 0.072848256677389145 5.1677656173706055 0.098530091345310211 0.93626141548156738
decision_type=0 0 0 0 0 0 0 0 0 0 0 0 0 0 0 0 0 0
left_child=1 5 -2 16 -5 14 7 9 -7 -3 11 -11 -10 -8 15 -1 -4 -18
right_child=2 6 3 4 -6 8 13 -9 12 10 -12 -13 -14 -15 -16 -17 17 -19
leaf_parent=15 2 9 16 4 4 8 13 7 12 11 10 11 12 13 14 15 17 17
leaf_value=-0.019569799766133104 -0.0057228074711599165 -0.014842171493607262 0.019798773959279061 0.013546233576662998 -0.01151507018816353 -0.015973977029726312 0.017624888378520345 0.01025773969086461 0.011629576200530643 0.016431198837143359 -0.017832744180566015 -0.0027285026013851169 -0.0050736384093761451 0.0051354810595512397 -0.013755160881714388 -0.022034495144054811 0.018807304858840926 0.019385644868016246
leaf_count=158 157 192 100 141 101 148 129 159 105 101 101 100 120 100 110 116 186 100
internal_value=0 -0.094678964663599235 0.18509851360017326 0.25998717935601617 0.061735276471484794 -0.23548156420652272 0.026168617937299941 -0.050019070620193597 -0.093934568818708528 -0.13214992982173254 -0.027444128465178786 0.13798018133462364 0.054423901504940454 0.2434199743916374 -0.37297382795562345 -0.41226494888754656 0.38427982313336484 0.38019043290531718
internal_count=2424 1639 785 628 242 757 882 653 373 494 302 201 225 229 384 274 386 286
shrinkage=0.05


Tree=7
num_leaves=18
split_feature=31 30 135 1 9 131 90 19 1 7 140 19 105 127 146 103 131
split_gain=37.316195702505837 25.56333371354534 17.248871395158371 15.073757048421143 14.08179935798163 13.342574359962814 13.175377469084141 12.895591285278307 17.000568481935513 12.318134106058547 7.572736709111858 5.4232576052554791 3.172087037618196 0.828781983405527 0.051375400196810972 0.01856280971577462 0.0078079662013692541
threshold=-82.289649963378906 37.09233283996582 34.013286590576172 14.243261337280273 40.277685165405273 0.76146817207336426 0.92261189222335815 0.07655671238899231 215.39377593994141 0.34257988631725311 0.020508344285190105 0.15926504880189896 7.6615889072418213 5.0080392360687256 0.59363996982574463 0.098530091345310211 0.93626141548156738
decision_type=0 0 0 0 0 0 0 0 0 0 0 0 0 0 0 0 0
left_child=1 3 -2 13 15 -6 7 -3 10 -5 -9 -10 -8 14 -1 -4 -17
right_child=2 6 4 9 5 -7 12 8 11 -11 -12 -13 -14 -15 -16 16 -18
leaf_parent=14 2 7 15 9 5 5 12 10 11 9 10 11 12 13 14 16 16
leaf_value=-0.018339172706007958 -0.0059175353798066608 -0.015469582001232121 0.018858666367390576 0.0059000511528455729 0.012868921511562159 -0.010939316746622029 0.016743643628072371 0.0030703981180448792 0.0027326004616185732 -0.013078340766025565 -0.013840994275197749 0.018134431391954423 0.0048787065893411636 -0.014243638282236846 -0.019738042924104561 0.017883607372641563 0.018428672348508739
leaf_count=100 161 146 102 171 141 101 129 111 102 171 164 130 100 115 191 188 101
internal_value=0 -0.090466935247000016 0.1739023125516978 -0.2264542619095129 0.24823522920857108 0.058648507580284247 0.0248601853239293 -0.047518116819913317 0.027893193609850882 -0.071782896131799931 -0.14029882691123269 0.22725873517579046 0.23124896829305258 -0.35674393455970466 -0.38514663017902179 0.36557534847722944 0.36148194416996515
internal_count=2424 1630 794 748 633 242 882 653 507 342 275 232 229 406 291 391 289
shrinkage=0.05


Tree=8
num_leaves=19
split_feature=10 30 135 17 9 10 136 72 47 39 114 127 10 50 80 71 103 131
split_gain=33.87386399981218 22.732307907460857 14.301487298098575 12.708744492407135 12.602156153708201 12.509325062171092 21.91374564204142 20.764233966052039 12.2865428906257 11.238421958092989 10.966043370751484 10.627027845092339 6.363924053894447 5.6499728919529701 1.2737372846815092 0.16403805110019931 0.014963980430444224 0.0070930018493911007
threshold=-82.256954193115234 37.09233283996582 34.013286590576172 0.075172014534473419 40.277685165405273 -121.73016357421875 -93.343551635742188 39.911752700805664 0.76045390963554382 0.016282857395708561 43.088211059570312 10.997493267059326 -102.04677581787109 0.37701223790645599 0.068512562662363052 0.039088457822799683 0.098530091345310211 0.93626141548156738
decision_type=0 0 0 0 0 0 0 0 0 0 0 0 0 0 0 0 0 0
left_child=1 3 -2 14 16 -3 12 -8 -6 10 -9 -5 -7 -13 15 -1 -4 -18
right_child=2 5 4 11 8 6 7 9 -10 -11 -12 13 -14 -15 -16 -17 17 -19
leaf_parent=15 2 5 16 11 8 12 7 10 8 9 10 13 12 13 14 15 17 17
leaf_value=-0.017835972357726267 -0.0051407899066900752 0.01783246099948883 0.017865901738405226 -0.014463113731629141 0.012240183028117033 -0.0059324461085195762 0.019511237976754584 -0.0045981873857214098 -0.010639413714408874 -0.013701253418739026 0.016803686478390142 0.011257928070567904 -0.02216515409361039 -0.0046238518257935837 -0.012820688544250117 -0.020351113602519039 0.016972759309955825 0.017494928911328318
leaf_count=141 157 100 100 148 142 131 164 141 100 130 104 105 112 120 123 120 186 100
internal_value=0 -0.085488146092558573 0.16713571719303252 -0.21260953843199906 0.23462359602474103 0.023617175903990695 -0.01897004200979267 0.093429278520131151 0.055716084177829014 -0.036369278510411579 0.089733793662518865 -0.081143195923148143 -0.26828376120991176 0.055752909183502196 -0.34030991800439853 -0.37984718273882667 0.34678840915156151 0.34310672187304997
internal_count=2424 1639 785 757 628 882 782 539 242 375 245 373 243 225 384 261 386 286
shrinkage=0.05


Tree=9
num_leaves=19
split_feature=10 30 131 129 41 1 10 94 72 43 144 10 7 51 139 28 80 119
split_gain=30.571162410507618 20.515907746265928 13.582641635972774 17.93319594276231 11.89782504208199 11.604744768641076 11.289665800895161 19.802483048638859 18.730635783360697 11.268685551346085 10.25071373942877 10.856542465359937 7.2297572977173594 6.1269088231367732 0.71975128040468661 0.5820678099933545 0.24620462624503148 0.18149906989833653
threshold=-82.256954193115234 37.09233283996582 0.95877334475517273 0.55875992774963379 0.40251404047012329 14.243261337280273 -121.73016357421875 -93.34210205078125 39.911752700805664 323.58576965332031 0.016256792470812798 -86.140422821044922 0.36223018169403076 39.469627380371094 0.018581606447696686 0.24285123497247696 0.070801958441734314 0.011567383538931608
decision_type=0 0 0 0 0 0 0 0 0 0 0 0 0 0 0 0 0 0
left_child=1 5 4 -4 -2 14 -3 13 -9 -7 11 -10 -11 -8 17 -6 -17 -1
right_child=2 6 3 -5 15 9 7 8 10 12 -12 -13 -14 -15 -16 16 -18 -19
leaf_parent=17 4 6 3 3 15 9 13 8 11 12 10 11 12 13 14 16 16 17
leaf_value=-0.015656322595122809 -0.00058138537265005569 0.016940837815403939 -0.014604490302329839 0.011022362616555445 0.013923970079765872 0.0086462571978569037 -0.020401654688138812 0.018535675726285793 0.013347025343350003 -0.00054591676363578213 -0.013483985729755893 -0.0075905855980005349 -0.018664256540628581 -0.0045119565648910334 -0.01208911618590355 0.020262999934893028 0.017185169658181388 -0.018079943786419573
leaf_count=143 126 100 129 145 104 125 126 164 140 104 124 111 117 117 100 102 179 168
internal_value=0 -0.081213740167129039 0.15877893054561251 -0.020856691211679556 0.25510018369922899 -0.20197906247690772 0.022436315375390776 -0.018021541521372392 0.088826164575587396 -0.06703532999650591 -0.034452569802602133 0.081755262684537117 -0.20275957997028643 -0.25502118590927908 -0.31558132874994671 0.34239294807632248 0.36604778378459485 -0.33931091236148231
internal_count=2424 1639 785 274 511 757 882 782 539 346 375 251 221 243 411 385 281 311
shrinkage=0.05


Tree=10
num_leaves=19
split_feature=51 114 135 19 136 10 127 10 94 9 22 0 6 115 124 41 127 135
split_gain=27.953925673149701 24.938354708745454 32.263517070298256 24.288732560186769 29.288037113907102 11.263961485151839 13.237123774748145 11.791993527626953 10.966723972104541 7.5446266124073142 11.056726547446031 4.2202165665765889 4.1599016681022505 1.0181635528758726 0.70842522477989789 0.23923459058666197 0.22893818072691374 0.03407400930786153
threshold=33.332544326782227 30.235219955444336 28.648768424987793 0.10296296328306198 -90.307723999023438 -82.291641235351562 240.45626831054688 -88.946685791015625 -93.34210205078125 42.916889190673828 186.25083923339844 28.147219657897949 0.92470511794090271 -79.726589202880859 0.1217997707426548 0.57432964444160461 127.95202255249023 39.885988235473633
decision_type=0 0 0 0 0 0 0 0 0 0 0 0 0 0 0 0 0 0
left_child=1 2 -1 4 12 6 7 8 -5 10 13 -8 16 -6 -7 -3 -2 -16
right_child=3 15 -4 5 9 14 11 -9 -10 -11 -12 -13 -14 -15 17 -17 -18 -19
leaf_parent=2 16 15 2 8 13 14 11 7 8 9 10 11 12 13 17 15 16 17
leaf_value=-0.012299736834674902 -0.017749901868329192 -0.021523655887342927 0.02273121807935103 -0.0025167857244443358 0.010954500079154968 0.011135271444916725 0.01978723581965643 -0.010272434137645781 0.016672295797616244 -0.0073281171003190598 -0.0052567574761661837 0.0061474448293447502 -0.0076077116142332021 0.017798773556196391 0.015628629725381551 -0.01862881870054808 -0.021032738126814367 0.016793352380247401
leaf_count=173 101 117 106 178 100 100 131 193 128 101 102 100 113 119 166 183 112 101
internal_value=0 -0.19501509212459306 0.020190297061824458 0.056839714463810288 -0.082109711227569993 0.15158371666723094 0.079735851777742991 -0.011884320056987908 0.11020039236233904 0.091809240350791063 0.16681089087438733 0.27765128790558158 -0.30724405958974288 0.29347069051167735 0.29449636345013613 -0.39515610406796137 -0.38952176139947953 0.32138435391897568
internal_count=2424 579 279 1845 748 1097 730 499 306 422 321 231 326 219 367 300 213 267
shrinkage=0.05


Tree=11
num_leaves=20
split_feature=114 136 9 112 10 114 135 103 114 4 1 13 7 134 32 136 136 106 63
split_gain=25.284658464414175 21.228820235548461 24.241292410513534 24.240402701854595 22.942796771982845 18.71968309563136 30.172230136352187 11.871743820570302 7.4233739314994622 6.7085158909450007 6.5309821589457968 17.603866835701155 3.2007964654261016 0.58313468541172853 0.56152274279234149 0.26507087692736064 0.26296091001975697 0.21760098142635087 0.055225983013610147
threshold=33.746833801269531 -90.307723999023438 42.622081756591797 0.36062940955162048 -121.73016357421875 30.235219955444336 28.648768424987793 0.10331597179174423 33.352617263793945 0.32156257331371307 205.42071533203125 0.089728318154811859 0.76416978240013123 0.59357279539108276 0.65827229619026184 -80.354866027832031 -87.693695068359375 12.640387058258057 7.2572357654571533
decision_type=0 0 0 0 0 0 0 0 0 0 0 0 0 0 0 0 0 0 0
left_child=5 4 10 -4 -2 6 -1 14 16 -9 12 -12 13 15 -6 -3 17 -7 -17
right_child=1 2 3 -5 7 8 -8 9 -10 -11 11 -13 -14 -15 -16 18 -18 -19 -20
leaf_parent=6 4 15 3 3 14 17 6 9 8 9 11 11 12 13 14 18 16 17 18
leaf_value=-0.011138874986632304 0.016019196975453991 0.018692112131284015 0.013105596152116667 -0.017160416352139277 -0.014903838563533056 -0.016225306964615018 0.0223365853002312 0.0069349627132001129 -0.0033785295428581611 -0.010257505412612644 -0.011816557675600053 0.017107137769192187 0.0067716832352536062 0.013115642022113412 -0.019837075856048617 0.016502652823925018 -0.020956047755830431 -0.019467585490873227 0.014939742810451068
leaf_count=176 107 101 106 176 105 103 109 115 103 112 100 111 140 196 128 100 102 104 130
internal_value=0 0.061886722926259664 0.1394005707111852 -0.11567660183348555 -0.096695399526145309 -0.16376169648026803 0.033280407023011591 -0.19371168056259985 -0.30006509332112896 -0.030953294642696298 0.22132740745104526 0.067984504722305952 0.26983618177752799 0.30554083526926201 -0.35227886341160458 0.33113807691908315 -0.37756326080911756 -0.35708555636774514 0.31238537806531658
internal_count=2424 1727 1160 282 567 697 285 460 412 227 878 211 667 527 233 331 309 207 230
shrinkage=0.05


Tree=12
num_leaves=19
split_feature=114 136 9 133 31 114 93 103 114 1 13 130 7 134 2 136 20 134
split_gain=22.819403863022991 19.159010378807405 21.877766464885848 22.387444482094306 20.193170012240166 16.894513991929234 27.145060835893688 10.878206278787729 6.6995951006580441 5.8942115203333998 15.887490165111647 5.7715448550358115 2.8887188130082038 0.52627908216889097 0.51449513796715252 0.23922649544780228 0.23766207728743893 0.049313628621394656
threshold=33.746833801269531 -90.307723999023438 42.622081756591797 0.35828262567520142 -121.72921752929688 30.235219955444336 28.324971199035645 0.10331597179174423 33.352617263793945 205.42071533203125 0.089728318154811859 0.28456994891166687 0.76416978240013123 0.59357279539108276 5.5 -80.354866027832031 0.59349393844604492 0.13522917032241821
decision_type=0 0 0 0 0 0 0 0 0 0 0 0 0 0 0 0 0 0
left_child=5 4 9 -4 -2 6 -1 14 16 12 -11 -9 13 15 -6 -3 -7 -17
right_child=1 2 3 -5 7 8 -8 11 -10 10 -12 -13 -14 -15 -16 17 -18 -19
leaf_parent=6 4 15 3 3 14 16 6 11 8 10 10 11 12 13 14 17 16 17
leaf_value=-0.011203529857672178 0.01497142338585631 0.017757506683321284 0.012796455919742584 -0.016345287943627201 -0.014511335950072219 -0.019498210060684123 0.020206293720623544 0.0073937872949155787 -0.0032096029051299235 -0.011225730046629906 0.016251780925033332 -0.0086202013276277054 0.0064330990718943735 0.012459859867789309 -0.019217745363712312 0.0156657210966148 -0.016704787201964097 0.014190483878749285
leaf_count=169 107 101 105 177 123 136 116 103 103 100 111 124 140 196 110 101 173 129
internal_value=0 0.058792385999080966 0.13243054161811696 -0.10989277265596052 -0.091860630787659367 -0.15557361055309837 0.031616387764612834 -0.18287787761377253 -0.28506183754471898 0.21026103663553139 0.064585277537034025 -0.027078843458108438 0.25634437272216248 0.29026379355669474 -0.33466491947358257 0.31458117378442307 -0.35868509735875914 0.29676610879276111
internal_count=2424 1727 1160 282 567 697 285 460 412 878 211 227 667 527 233 331 309 230
shrinkage=0.05


Tree=13
num_leaves=20
split_feature=114 136 9 112 136 114 135 145 4 114 136 31 1 74 70 136 64 9 34
split_gain=20.594512144951452 17.291006865752202 19.74468449306281 19.767559084909262 18.368024979938454 15.247298887880874 24.709147069979302 9.7599906199521502 6.1577963577479773 6.0463847113309512 5.3853792110597709 16.828412615668707 6.2476872383039179 0.54681937356555466 0.36948946259931148 0.23204861974922153 0.18890459525599468 0.107822743984471 0.017065842441908785
threshold=33.746833801269531 -90.307723999023438 42.622081756591797 0.36062940955162048 -121.72617721557617 30.235219955444336 28.648768424987793 0.10311921313405037 0.31443926692008972 33.352617263793945 -84.09234619140625 -82.289649963378906 138.10355377197266 0.76283389329910278 0.6000806987285614 -87.693695068359375 12.231870651245117 40.540565490722656 0.014141710940748453
decision_type=0 0 0 0 0 0 0 0 0 0 0 0 0 0 0 0 0 0 0
left_child=5 4 10 -4 -2 6 -1 13 -9 15 14 -12 17 -6 -3 16 -7 18 -13
right_child=1 2 3 -5 7 9 -8 8 -10 -11 11 12 -14 -15 -16 -17 -18 -19 -20
leaf_parent=6 4 14 3 3 13 16 6 8 8 9 11 18 12 13 14 15 16 17 18
leaf_value=-0.010084217363460497 0.014189194004844736 0.019046018516348902 0.011837985816429246 -0.015493410190736707 -0.013578956506469035 -0.014615512869068396 0.020209441368186146 0.0067828920094863236 -0.0097263249728056778 -0.0030491226361793224 -0.0084261691732000019 0.014174144533951639 0.00052987585465113325 -0.018427019060722419 0.014840183801510753 -0.018989477131296607 -0.017638139814138414 0.015712229445576667 0.013461778659349794
leaf_count=176 108 107 106 176 121 107 109 115 111 103 129 181 102 112 102 102 100 100 157
internal_value=0 0.055852767690524378 0.12580901552633991 -0.10439813454100426 -0.08726759825223758 -0.14779492981806719 0.030035568643034551 -0.17457382845203342 -0.02651234432659318 -0.27080874550111084 0.19974798627689921 0.15597350877585789 0.23349221081093505 -0.31818711348357631 0.33986820373238558 -0.34075084309361897 -0.3215143824545082 0.28539919427949001 0.27686505385580851
internal_count=2424 1727 1160 282 567 697 285 459 226 412 878 669 540 233 209 309 207 438 338
shrinkage=0.05


Tree=14
num_leaves=21
split_feature=61 9 73 133 76 51 9 10 133 131 28 1 52 31 145 49 64 112 1 31
split_gain=19.680555849454009 15.030211603217602 10.046731744789954 9.3664694536192492 9.2598942624597882 8.9763656353902519 16.104564457942359 11.92794252843013 6.8247633581448683 5.1964330535823056 4.3153652883462108 4.1079070493053438 3.4889053437963824 7.4590122682590074 1.9723780722551609 0.59682010427257381 0.47301235224367133 0.39295165436637802 0.1307859520985204 0.037054086188973656
threshold=0.1016724556684494 33.332544326782227 -81.683399200439453 0.44986742734909058 0.044818809255957603 42.652278900146484 43.110610961914062 -111.65202713012695 0.35828262567520142 0.82721447944641113 0.12618555873632431 75.498603820800781 -84.079086303710938 -82.256801605224609 0.10042824223637581 0.21558684855699539 42.478445053100586 0.37234377861022949 1.8765338063240051 -80.318763732910156
decision_type=0 0 0 0 0 0 0 0 0 0 0 0 0 0 0 0 0 0 0 0
left_child=2 8 3 10 9 7 -7 -3 -2 -4 -1 -5 17 -14 16 -15 18 -9 -12 -17
right_child=1 5 4 11 -6 6 -8 12 -10 -11 14 -13 13 15 -16 19 -18 -19 -20 -21
leaf_parent=10 8 7 9 11 4 6 6 17 8 9 18 11 13 15 14 19 16 17 18 19
leaf_value=-0.0022463943194417123 -0.015263872512150556 -0.006874348033292621 0.0041728750574138926 0.0081648854999849113 0.014969139665365221 -0.017143421240297021 0.0074862738659507355 0.018059992587024516 0.0013696340577942986 -0.011675846148835552 -0.012722231529653072 -0.0061312168985605238 -0.0032428006678819656 0.0089170883223414418 -0.0080360672312478221 0.01421887318044901 -0.017873776340207391 0.014071126603360835 -0.015189681947231293 0.012990474396344251
leaf_count=103 128 102 106 101 100 102 190 132 119 101 100 100 100 100 120 100 129 116 116 159
internal_value=0 0.077934147773492932 -0.10342267810689029 -0.1644764198632172 0.04950998446840417 0.1279482432081957 -0.022344995341072343 0.18219499927295005 -0.14500317641115382 -0.071201517386137003 -0.2301285242740537 0.021047934889793396 0.22831601753851985 0.17667980446664855 -0.27115146126798406 0.24395997656255047 -0.30956193662208059 0.32388465382879777 -0.2809468758189016 0.26929519282344688
internal_count=2424 1348 1076 769 307 1101 292 809 247 207 568 201 707 459 465 359 345 248 216 259
shrinkage=0.05


Tree=15
num_leaves=20
split_feature=19 30 136 13 133 51 93 136 112 110 112 73 94 123 82 1 17 67 10
split_gain=17.890854488173865 13.920069909299164 8.5957596249694888 9.5109967426469435 8.747159550925435 8.181810875912884 12.819605316310906 9.6983285507406798 6.7530365801103178 5.5414552950226224 3.8607117408815981 2.9673102174578929 7.5174316381933632 2.7539778651893769 1.5769623700197322 0.72988006929424287 0.44621313334569024 0.32446854630990529 0.03412179355953171
threshold=0.10296296328306198 33.332544326782227 -81.682991027832031 0.044166095554828644 0.44986742734909058 42.652278900146484 43.117694854736328 -111.6528434753418 0.35798697173595428 0.83272275328636169 0.12525918334722519 -84.080020904541016 -82.256767272949219 0.010921751148998737 0.10159722343087196 10.278107166290283 0.072587005794048309 0.37554088234901428 -80.080684661865234
decision_type=0 0 0 0 0 0 0 0 0 0 0 0 0 0 0 0 0 0 0
left_child=2 8 4 9 10 7 -7 -3 -2 -4 -1 16 -13 -6 15 -12 -9 18 -14
right_child=1 5 3 -5 13 6 -8 11 -10 -11 14 12 17 -15 -16 -17 -18 -19 -20
leaf_parent=10 8 7 9 3 13 6 6 16 8 9 15 12 18 13 14 15 16 17 18
leaf_value=-0.0018704050555825233 -0.014888054877519609 -0.0057458968013525012 0.0040344777253438846 0.014572806012572596 0.0071941910311579711 -0.015475877031683922 0.0067441149257324836 0.012837789610028266 0.0015178003810285554 -0.012250363154029385 -0.012184939798466939 -0.0035807557106018067 0.013563306757381986 -0.0045403261408209798 -0.0075418920305214427 -0.016672611959716855 0.017204356764225253 0.0095133384540677084 0.012391283990521182
leaf_count=100 128 100 106 103 100 100 185 100 123 103 194 100 105 100 114 170 141 100 152
internal_value=0 0.075217034717996623 -0.097482308417285252 0.042747836751051441 -0.15371856200664394 0.12439441907934205 -0.021047469607570715 0.17633795075323946 -0.13697064362199182 -0.079821317318523904 -0.21609129934574905 0.21806515516302305 0.17071687748056533 0.026538648903369905 -0.25347272157045586 -0.28561661286013468 0.30785006346544291 0.23859698719838085 0.25740251953963639
internal_count=2424 1334 1090 312 778 1083 285 798 251 209 578 698 457 200 478 364 241 357 257
shrinkage=0.05


Tree=16
num_leaves=18
split_feature=40 135 106 72 93 114 112 10 120 46 10 103 124 131 56 43 10
split_gain=16.937363112021551 10.392831412549318 11.808482162989849 8.4949423618737221 8.1910237827292676 8.0679343863451365 7.2897904810807646 6.6759115463526939 5.8949387238798048 3.3345083522895109 1.6991901655251436 1.3545618632807077 0.90729959641760516 0.52227557445170447 0.36634654084348917 0.26552760031762546 0.034142414021399503
threshold=0.1372106522321701 38.046802520751953 283.7105712890625 33.332544326782227 42.916576385498047 30.235219955444336 0.39319735765457153 -85.506134033203125 0.54531455039978027 0.47203396260738373 -82.122764587402344 0.13024305552244186 0.10290509089827538 0.65005072951316833 0.016825659200549126 14.462994575500488 -97.147464752197266
decision_type=0 0 0 0 0 0 0 0 0 0 0 0 0 0 0 0 0
left_child=1 5 4 -2 10 -1 9 12 -8 11 -3 -5 15 14 -13 16 -7
right_child=3 2 -4 6 -6 7 8 -9 -10 -11 -12 13 -14 -15 -16 -17 -18
leaf_parent=5 3 10 2 11 4 16 8 7 8 9 10 14 12 13 14 15 16
leaf_value=0.0023411833737269944 -0.004619234487496687 0.0056845850753088067 -0.0095068894446214899 0.0077687639026687702 -0.0037286853361986356 -0.014150907615623851 0.010613386750221254 -0.00069977723009197429 -0.0044831498683801764 0.0029100612357810694 0.013022547824087963 0.01487379639595747 -0.0092307480672995258 0.016843731973379378 0.01059392174333334 -0.01646278160705901 -0.012891012520893761
leaf_count=166 181 137 187 104 167 101 100 141 183 108 186 100 108 126 100 114 115
internal_value=0 -0.06603255808227676 0.023648545740274064 0.10371578660256373 0.10523639181438757 -0.14752800410625919 0.14694865654142125 -0.20324886331595288 0.017026307357494906 0.21529071010843084 0.19820322294722401 0.25474574364895042 -0.26417287687460583 0.28644675107821366 0.25467718139290807 -0.29021001286578901 -0.26960260269266589
internal_count=2424 1422 677 1002 490 745 821 579 283 538 323 430 438 326 200 330 216
shrinkage=0.05


Tree=17
num_leaves=18
split_feature=103 9 112 135 22 9 135 114 10 119 91 10 19 10 22 143 146
split_gain=15.545006446866925 10.240254551914227 8.4937666844036919 7.6055038237069263 13.23075888683859 7.6546954995598 6.370368154725389 13.80189487531495 6.66403489525743 5.0153714221470738 3.5788759502872018 3.2973798445657287 1.4627855814487596 0.57241484505651741 0.45594672248758528 0.17900290368811511 0.053162711697636311
threshold=0.10236689820885658 33.332544326782227 0.3659144788980484 38.046802520751953 268.59848022460938 30.120510101318359 42.322128295898438 43.115362167358398 -111.65202713012695 0.018584077246487141 0.779277503490448 -85.711761474609375 0.097864586859941483 -82.512641906738281 41.931783676147461 0.070548821240663528 0.82878419756889343
decision_type=0 0 0 0 0 0 0 0 0 0 0 0 0 0 0 0 0
left_child=3 2 -2 5 9 -1 8 -8 -3 -5 12 14 -10 -14 15 -7 -15
right_child=1 6 -4 4 -6 11 7 -9 10 -11 -12 -13 13 16 -16 -17 -18
leaf_parent=5 2 8 2 9 4 15 7 7 12 9 10 11 13 16 14 15 16
leaf_value=0.0028662858926874445 -0.014307995513081552 -0.0036778470962354455 0.0040160109877586366 0.011854576399283751 -0.012467318489937715 -0.013047262976932176 -0.014577011005194099 0.0076835569298389006 0.0064414582469246601 -0.00019009516815121256 0.0015497198973137599 -0.0029072391614317896 0.014917671164641015 0.012127809935519773 -0.015523879929230764 -0.010299087500288373 0.010722122696183977
leaf_count=127 128 101 125 168 142 136 108 196 110 178 104 100 195 124 130 105 147
internal_value=0 0.076075530384064435 -0.10509265234819043 -0.084958918625917659 0.0076792077695737116 -0.16055658698879358 0.11832027714098653 -0.0044960546258248782 0.16612586594650597 0.11316369336119966 0.20172581240973053 -0.21930616812468082 0.23255231779896551 0.25703632383899117 -0.26274589451175495 -0.23699850227328256 0.2273063076268263
internal_count=2424 1338 253 1086 488 598 1085 304 781 346 680 471 576 466 371 241 271
shrinkage=0.05


Tree=18
num_leaves=19
split_feature=124 9 9 114 43 114 135 114 10 93 52 94 9 136 114 112 104 94
split_gain=14.280039776480477 9.9627918877565875 7.0513973620377417 6.8234088429345361 11.587238406750322 7.8958921088160636 5.7191258494303057 11.931621349418624 6.7358925711403081 4.8426857965412013 3.420807480466717 7.7942320097424709 2.5000211041623643 2.1746561126453976 0.64480243514849178 0.52231699729593117 0.20433621267499547 0.040704889941268974
threshold=0.097685184329748154 33.332544326782227 30.358349800109863 38.253740310668945 282.80819702148438 30.235219955444336 42.322128295898438 43.115362167358398 -111.65202713012695 42.956483840942383 -84.208999633789062 -82.256927490234375 33.751214981079102 -77.191184997558594 38.271823883056641 0.22090110927820206 0.62837547063827515 -80.082546234130859
decision_type=0 0 0 0 0 0 0 0 0 0 0 0 0 0 0 0 0 0
left_child=3 2 -2 5 9 -1 8 -8 -3 13 14 -12 16 -5 -10 -13 -7 -17
right_child=1 6 -4 4 -6 12 7 -9 10 -11 11 15 -14 -15 -16 17 -18 -19
leaf_parent=5 2 8 2 13 4 16 7 7 14 9 11 15 12 13 14 17 16 17
leaf_value=0.0032858372515728396 0.0012886366574093701 -0.0040479238443779497 -0.015484213583099033 0.0042687333077192314 -0.01258200557813758 -0.01577545757241109 -0.013304029923996756 0.0070975772250237781 0.012063263870880638 -0.0031234384110543582 -0.0054236842170357711 0.007228285543620587 -0.006428001075983048 0.01435047599932422 0.017259676103453036 0.012125668115913868 -0.012938389022435463 0.010891783376192225
leaf_count=124 160 106 103 100 126 102 112 199 142 113 100 100 182 115 103 124 168 145
internal_value=0 0.069708409351717626 -0.10560396455313316 -0.085559253929888154 0.0061188029691511313 -0.15781938905517259 0.11047512406168734 -0.0049925069908620459 0.15426833535112985 0.10513594696616255 0.18918996293838619 0.13916211379870677 -0.21914346123823022 0.19322586704132169 0.28495755986291538 0.20627208619421414 -0.28020340949296951 0.22921125917629681
internal_count=2424 1394 263 1030 454 576 1131 311 820 328 714 469 452 215 245 369 270 269
shrinkage=0.05


Tree=19
num_leaves=18
split_feature=40 135 106 73 7 93 114 10 10 42 124 49 77 10 10 73 112
split_gain=13.294663856782615 7.9662159853412602 9.3848066996613486 6.8088919121180673 8.2023416557721269 6.4648352396265665 6.2431609032979392 5.6954980972488602 5.1588841074153926 4.4984457568505869 3.0981933637799957 1.9581442394420101 1.783824895874206 1.3642292783216625 0.76021869874370651 0.68191103458265978 0.25644216119419028
threshold=0.13806134462356567 38.046802520751953 283.7105712890625 -82.256954193115234 0.31717674434185028 42.916576385498047 30.235219955444336 -86.363845825195312 -85.506134033203125 16.046707153320312 0.15688078850507736 0.24045950174331665 0.018820767290890217 -82.122764587402344 -96.5374755859375 -80.331512451171875 0.34514108300209045
decision_type=0 0 0 0 0 0 0 0 0 0 0 0 0 0 0 0 0
left_child=1 6 5 4 10 13 -1 9 14 -6 -2 -5 -12 -3 16 -13 -8
right_child=3 2 -4 11 7 -7 8 -9 -10 -11 12 15 -14 -15 -16 -17 -18
leaf_parent=6 10 13 2 11 9 5 16 7 8 9 12 15 12 13 14 15 16
leaf_value=0.0020572844424290573 0.0010484564467333258 0.0049331052677474754 -0.0084791583595452483 0.0046033435463905337 -0.0074333242997527129 -0.0033181770974715081 -0.012073813425669881 -0.013918403156101704 -0.00062340617074932859 0.0068457852049571711 0.015745617598295212 0.01600662434419382 0.0064572499177166232 0.011485971486757673 -0.0090979925506022765 0.010560073835345416 -0.01530540180951357
leaf_count=167 128 137 189 100 100 169 159 100 142 123 100 103 107 189 181 130 100
internal_value=0 -0.05804074205723328 0.019981028457656938 0.092600908607815877 0.033633700937123284 0.09236008497801694 -0.12929159790794745 -0.080070660394780779 -0.17819714238963177 0.0088519417250637524 0.14326507022131735 0.20911869433549074 0.21888768125847341 0.17464319218887142 -0.23168241669508544 0.25935552841604009 -0.26643061896778902
internal_count=2424 1433 684 991 658 495 749 323 582 223 335 333 207 326 440 233 259
shrinkage=0.05


Tree=20
num_leaves=17
split_feature=40 135 85 72 93 30 49 31 1 52 73 31 61 31 1 115
split_gain=11.998434056325445 7.1895098933532777 8.1633090730118507 6.2331188836532512 5.9693030969898935 5.5859092026257535 5.175085880423941 5.4727166198295505 5.3715761289841799 4.8246668232696308 1.6997040710106148 1.4184218661475718 0.6918332855912368 0.65698481497103245 0.20222809405922249 0.043477077919202856
threshold=0.13806134462356567 38.046802520751953 282.1204833984375 33.332544326782227 42.916576385498047 30.355718612670898 0.31790228188037872 -82.289649963378906 39.580623626708984 -84.982242584228516 -93.341213226318359 -82.122764587402344 0.10063078626990318 -83.010463714599609 45.100893020629883 -97.147495269775391
decision_type=0 0 0 0 0 0 0 0 0 0 0 0 0 0 0 0
left_child=1 5 4 -2 11 -1 10 8 -8 12 -5 -3 14 -12 15 -7
right_child=3 2 -4 6 -6 9 7 -9 -10 -11 13 -13 -14 -15 -16 -17
leaf_parent=5 3 11 2 10 4 15 8 7 8 9 13 11 12 13 14 15
leaf_value=0.0019194702902239954 -0.0040471905394972368 0.0044165639383514435 -0.0079558712554806694 0.0054515747049598828 -0.0032326992427886923 -0.011972200252115726 -0.0095750641752415759 0.01026001576620799 0.0052096551518981196 -0.00036543892962591991 0.014935297683858482 0.011105779407823341 -0.0073581858575344095 0.010143971792018484 -0.013750487565994264 -0.010568417009057069
leaf_count=167 179 137 187 141 172 100 127 130 119 140 122 188 100 173 119 123
internal_value=0 -0.055138705393191573 0.018981976423695771 0.087970862294783139 0.085993220058965009 -0.12282701829406066 0.12520697865213079 0.039240311831235886 -0.048462129039008442 -0.16908671386872781 0.19934337022244383 0.16572035619845757 -0.22032859382046832 0.2425093855898259 -0.24172183261280172 -0.22395832442381991
internal_count=2424 1433 684 991 497 749 812 376 246 582 436 325 442 295 342 223
shrinkage=0.05


Tree=21
num_leaves=19
split_feature=40 51 133 64 30 13 72 51 51 136 73 10 55 43 17 62 30 131
split_gain=11.997445234668771 8.7579889982463186 5.783088623957477 5.1998788288061029 9.4815639102421976 5.0274248768857497 4.8830518826831417 4.8542340438506564 12.893097050926251 6.8895799582853936 3.2755736798222657 7.3155642752116119 2.6534358048122186 1.2109089048306734 1.0686874864892602 0.56904209829808039 0.1706651779661037 0.048424744055644453
threshold=0.10057870671153069 33.332544326782227 0.35828262567520142 287.6607666015625 38.253583908081055 0.084219105541706085 42.945436477661133 42.455137252807617 43.104310989379883 -111.6528434753418 -84.080020904541016 -82.291641235351562 0.11920550465583801 25.869660377502441 0.06697564572095871 0.7478337287902832 40.198217391967773 0.75688657164573669
decision_type=0 0 0 0 0 0 0 0 0 0 0 0 0 0 0 0 0 0
left_child=3 2 -2 4 5 14 13 9 -9 -3 15 -12 -5 -6 -1 -11 17 -13
right_child=1 7 -4 12 6 -7 -8 8 -10 10 11 16 -14 -15 -16 -17 -18 -19
leaf_parent=14 2 9 2 12 13 5 6 8 8 15 11 17 12 13 14 15 16 17
leaf_value=-0.012107243763350452 -0.012870941987404459 -0.0051717074428285874 0.0023505643693109354 -0.016123132956655403 0.0049340541882995984 0.0030519385665360066 -0.0042208753918346609 -0.014183656622966133 0.0072439630189179123 0.010570554163689926 -0.0057305294801207156 0.0094657449124308374 -0.0057807069764856034 0.012339949405917497 -0.0067118692398071295 0.015460526882045307 0.0076288691759109507 0.010818428430577806
leaf_count=193 130 105 120 114 114 101 114 111 191 107 102 154 136 107 175 134 100 116
internal_value=0 0.057939011076070968 -0.11129237872362137 -0.083976578836875357 -0.044809761165238139 -0.13658973851056497 0.083682207118219401 0.095713874870645144 -0.012635029704365509 0.13571554868684713 0.17093394734331133 0.12250149682543035 -0.20993706446886062 0.17039427727595713 -0.19083017191809157 0.26578920312936871 0.18786753146229562 0.20093795662676847
internal_count=2424 1370 250 1054 804 469 335 1120 302 818 713 472 250 221 368 241 370 270
shrinkage=0.05


Tree=22
num_leaves=19
split_feature=40 51 133 64 30 13 141 133 114 72 4 103 55 43 127 143 106 89
split_gain=10.827694571824384 7.9040852052216861 5.2192375234417199 4.6928906619814166 8.5571114118175391 4.5372509245319526 4.453007037411929 6.2279966427161391 5.2642442857374991 4.4069544462345966 4.2046415471855711 2.5928130632719011 2.3947257472939434 1.0928452920944975 1.0568033073681598 1.0189805253616395 0.73261387702515357 0.71944722273105377
threshold=0.10057870671153069 33.332544326782227 0.35828262567520142 287.6607666015625 38.253583908081055 0.084219105541706085 0.5368916392326355 0.38553315401077271 42.622081756591797 42.945436477661133 0.45861299335956573 0.1206856481730938 0.11920550465583801 25.869660377502441 240.45626831054688 0.042022896930575371 12.640387058258057 0.58727627992630005
decision_type=0 0 0 0 0 0 0 0 0 0 0 0 0 0 0 0 0 0
left_child=3 2 -2 4 5 15 14 10 -9 13 11 -8 -5 -6 -3 -1 -13 -17
right_child=1 6 -4 12 9 -7 7 8 -10 -11 -12 16 -14 -15 -16 17 -18 -19
leaf_parent=15 2 14 2 12 13 5 11 8 8 9 10 16 12 13 14 17 16 17
leaf_value=-0.012846805329124134 -0.012227394959101311 0.0073936628209332299 0.0022330361356337866 -0.015316976299672797 0.0046873514720222409 0.0028993415655476033 0.0013696363426390148 0.0016398728985075998 -0.012387628919712387 -0.0040098317882470919 -0.0029647982556302594 0.0073823683333298397 -0.0054916717550333814 0.01172295194641452 0.01351802953415447 -0.0045194016057785932 0.012335058103005092 -0.0099056670546531691
leaf_count=120 130 177 120 114 114 101 105 198 101 114 106 121 136 107 117 123 195 125
internal_value=0 0.055042061003020212 -0.10572776067256927 -0.079777750955360896 -0.042569274092046777 -0.12976025248260131 0.090928181912750011 0.053309695213383683 -0.061970280065983034 0.079498095654729581 0.11871522198478909 0.16353514082641329 -0.19944021254777908 0.16187456344587231 0.19661821597287443 -0.18128866406724506 0.20877233534296857 -0.14468506285019458
internal_count=2424 1370 250 1054 804 469 1120 826 299 335 527 421 250 221 294 368 316 248
shrinkage=0.05


Tree=23
num_leaves=19
split_feature=40 51 30 64 30 114 93 51 51 52 73 10 125 43 135 41 72 131
split_gain=9.7719942580900554 7.1334368437438727 5.1889264242694422 4.2353338752015288 7.7227930760974157 4.2455893974888106 4.1366233721517274 4.0555239739094162 10.854090172442545 6.1899958211363781 2.9721359792958104 6.4728262925432984 2.3064383346642217 1.00850520692833 0.99188446063918612 0.56675401466036313 0.17124441670353363 0.051202397262544608
threshold=0.10057870671153069 33.332544326782227 30.420295715332031 287.6607666015625 38.253583908081055 30.235219955444336 42.956483840942383 42.455137252807617 43.104310989379883 -111.65202713012695 -84.080020904541016 -82.291641235351562 0.75163191556930542 25.869660377502441 33.746833801269531 0.72144380211830139 40.198217391967773 0.75688657164573669
decision_type=0 0 0 0 0 0 0 0 0 0 0 0 0 0 0 0 0 0
left_child=3 2 -2 4 5 -1 13 9 -9 -3 15 -12 -5 -6 -7 -11 17 -13
right_child=1 7 -4 12 6 14 -8 8 -10 10 11 16 -14 -15 -16 -17 -18 -19
leaf_parent=5 2 9 2 12 13 14 6 8 8 15 11 17 12 13 14 15 16 17
leaf_value=0.0024305485324426133 0.0010076729973562723 -0.0051254024693988404 -0.013627622153573824 -0.013560193047441285 0.0044600192326725574 -0.011289487424350922 -0.0040115160884055421 -0.013066866315968401 0.0065935185598453312 0.0095535678770935651 -0.0056299365034290392 0.008653243273109585 -0.0038297574647835324 0.011202523974632776 -0.0060257719106533957 0.014462579177678937 0.0068287027403712277 0.010044180974364282
leaf_count=110 147 106 103 145 114 189 113 111 191 103 102 154 105 108 170 137 100 116
internal_value=0 0.052289957917519732 -0.10044137209653854 -0.075788862833601242 -0.040440809593271856 -0.12327223920872979 0.075523191868369255 0.086381772652800601 -0.012652987823975797 0.12294472823224616 0.15650932714761642 0.1104381867700209 -0.18946820205450057 0.15480313349414515 -0.1759384037890474 0.24711590322355428 0.17192403952012192 0.18501662645075057
internal_count=2424 1370 250 1054 804 469 335 1120 302 818 712 472 250 222 359 240 370 270
shrinkage=0.05


Tree=24
num_leaves=19
split_feature=124 94 136 49 41 9 10 99 82 9 1 123 133 98 69 80 10 20
split_gain=8.9385882427229451 5.9473641280776226 11.350873458339274 5.235502373649374 3.9185302919690406 5.1853525986334477 5.1745670401734536 3.8921920711656952 3.3065630198674993 2.6841871155199963 2.4649352051766158 2.5775199619823974 2.2814849728269859 2.142688043569084 1.9343161636477042 0.79586368157770693 0.42227127671069908 0.13762090220248346
threshold=0.10290509089827538 -82.256927490234375 -82.728969573974609 0.31790228188037872 0.6132068932056427 40.540565490722656 -82.291641235351562 0.54237303137779236 0.11057870090007782 42.622081756591797 196.17121124267578 0.00034083164064213634 0.21238192915916443 0.0172246303409338 0.71865382790565491 0.073607280850410461 -87.753231048583984 0.72825953364372253
decision_type=0 0 0 0 0 0 0 0 0 0 0 0 0 0 0 0 0 0
left_child=4 2 3 8 10 6 14 -5 -2 -9 11 -1 -3 -10 -6 -14 -16 -17
right_child=1 12 -4 7 5 -7 -8 9 13 -11 -12 -13 15 -15 16 17 -18 -19
leaf_parent=11 8 12 2 7 14 5 6 9 13 9 10 11 15 13 16 17 16 17
leaf_value=-0.010917031221857696 -0.001255658008158207 0.0012882441886373471 -0.014395858710226805 0.0050544239124473266 -0.0021067394536954387 0.0056180583468327921 0.004333451341675675 -0.00069703712962032149 0.013920789795802602 -0.010757538714470008 -0.014001396808538354 -0.00065623364977903309 0.013310281433165073 0.0052744368067035429 -0.0077413133449024622 0.0066391688780249843 -0.011866385414512881 0.0091750875045763011
leaf_count=107 100 111 115 147 135 192 138 153 134 117 111 143 100 154 144 107 109 107
internal_value=0 0.051158807944631048 0.0059626337626705996 0.047945463472271556 -0.071029291357896859 -0.028298369647732684 -0.079641774636711002 -0.02984548658489895 0.1315506855697976 -0.10113175632777037 -0.15601766196149208 -0.10095710021257401 0.14899523205616894 0.18594785422707596 -0.1387935545410692 0.19255755262769711 -0.1903703661539809 0.15814256382601283
internal_count=2424 1345 920 805 1079 718 526 417 388 270 361 250 425 288 388 314 253 214
shrinkage=0.05


Tree=25
num_leaves=18
split_feature=40 72 84 78 31 56 106 25 64 30 140 13 55 36 115 4 62
split_gain=8.2453221041070428 5.9170534726400117 4.7917438990548362 3.7750557320929685 5.2470340649059146 6.2015505992477751 5.9707186168696103 3.9479989588163198 3.7204529953481602 6.5242451955503551 3.940211934869116 3.7627067201802396 2.0729507681939774 1.0034777819621166 0.84841925318677447 0.61985153803548343 0.095540533947161776
threshold=0.10057870671153069 33.332544326782227 13.349302768707275 0.52715891599655151 -82.289649963378906 0.009255613200366497 222.64300537109375 0.33116430044174194 287.6607666015625 38.253583908081055 0.01855086162686348 0.084219105541706085 0.11163528636097908 0.87525099515914917 -86.197887420654297 0.20557856559753418 0.81144064664840698
decision_type=0 0 0 0 0 0 0 0 0 0 0 0 0 0 0 0 0
left_child=8 2 -2 14 5 -5 7 -7 9 11 -11 13 -10 15 -3 -1 -6
right_child=1 3 -4 4 16 6 -8 -9 12 10 -12 -13 -14 -15 -16 -17 -18
leaf_parent=15 2 14 2 5 16 7 6 7 12 10 10 11 12 13 14 15 16
leaf_value=-0.0033992763270031322 -0.010250098043240157 0.011998900589142138 0.0038988236486911772 0.0087779244659006179 0.0091672001342321258 -0.001435180541513295 0.0068237517774105069 -0.012370917756276526 -0.013983759830851074 0.0091787576302886 -0.0016773260746683395 0.0029203451801054548 -0.0048023008708412765 -0.011871828975384698 0.0063809720448393756 -0.0083841380482125617 0.0072671880485949587
leaf_count=110 149 131 100 141 116 174 110 157 109 160 175 101 141 114 138 144 154
internal_value=0 0.04808663641014238 -0.091356003499892827 0.079060068468660455 0.046452739866266787 -0.0069984693041781785 -0.065367020700388759 -0.13244444120596544 -0.069562713500727291 -0.036432854655147784 0.070153382553983096 -0.11256588123309841 -0.17610833954811095 -0.15949047707102221 0.18233681184873263 -0.12450679330023255 0.16166979074478149
internal_count=2424 1370 249 1121 852 582 441 331 1054 804 335 469 250 368 269 254 270
shrinkage=0.05


Tree=26
num_leaves=18
split_feature=115 52 51 72 55 112 145 10 10 10 4 115 106 35 12 51 40
split_gain=7.6235162880172931 14.648077661799322 9.1237856851453643 12.867517718768134 10.290870167953209 9.097115614827592 3.6145235633708115 4.6802605679443197 6.0928282883380076 3.0430737112663726 2.7967533929405874 1.805444965172919 1.1718884251855872 0.93977272382211652 0.85729004494479355 0.36631357611325299 0.14045158121318835
threshold=-122.31550216674805 -113.55459976196289 42.444313049316406 33.332544326782227 0.096246231347322464 0.32800455391407013 0.083836805075407028 -84.2242431640625 -82.291641235351562 -82.291641235351562 0.43068231642246246 -88.250881195068359 50.973043441772461 0.011033517774194479 0.5129069983959198 40.198816299438477 0.13806134462356567
decision_type=0 0 0 0 0 0 0 0 0 0 0 0 0 0 0 0 0
left_child=-1 12 3 4 11 -4 9 14 -9 -5 -7 -3 -2 -13 -8 16 -10
right_child=1 2 5 6 -6 10 7 8 15 -11 -12 13 -14 -15 -16 -17 -18
leaf_parent=0 12 11 5 9 4 10 14 8 16 9 10 13 12 13 14 15 16
leaf_value=0.013607254616916179 -0.01349872794893125 -0.002455880267932864 0.0020472200853484022 -0.003766127939444858 0.0067561604262116439 -0.01848196457011984 0.0093776067765820939 -0.0061187594484251283 0.0099233661033213145 0.0062063893817953381 -0.0069626938770799077 -0.014139708280563355 -0.0067741753458976754 -0.0080760506271137355 0.014904249089154584 0.0048970761299133303 0.007606231088124255
leaf_count=100 184 101 196 154 166 109 119 104 100 152 102 100 100 177 171 100 189
internal_value=0 -0.0098398461194128678 0.019782287824679824 0.053169223943591776 -0.072424745050204145 -0.11417561557134774 0.11590854362460645 0.1519242073308158 0.092627623381044022 0.023750815905776677 -0.25826814346968846 -0.16357014265167649 -0.22261855473190967 -0.20530193422783152 0.25272840004542779 0.15010909506318501 0.16816015819983499
internal_count=2424 2324 2040 1633 544 407 1089 783 493 306 211 378 284 277 290 389 289
shrinkage=0.05


Tree=27
num_leaves=18
split_feature=136 94 51 72 114 66 133 19 10 10 4 10 106 143 111 92 94
split_gain=7.0651556555291082 13.479432577027264 8.2374670453680281 11.619043101597981 9.9914969397598075 15.679797228276733 8.191678972283114 3.327967016435732 4.2876145119947502 6.1238526128352824 2.6288303183172328 2.1871384914327709 0.93545722941634324 0.58956061001509497 0.49973337148859187 0.36050481705675708 0.088507911718004983
threshold=-122.31550216674805 -113.55451965332031 42.444313049316406 33.332544326782227 30.235219955444336 0.059212200343608856 0.32812951505184174 0.084924768656492233 -84.079692840576172 -82.291641235351562 0.43200670182704926 -82.291641235351562 49.766712188720703 0.0734703429043293 0.72492241859436035 0.68580517172813416 -80.082546234130859
decision_type=0 0 0 0 0 0 0 0 0 0 0 0 0 0 0 0 0
left_child=-1 12 3 4 5 -3 -4 11 13 -10 -8 -5 -2 -9 -6 16 -11
right_child=1 2 6 7 14 -7 10 8 9 15 -12 -13 -14 -15 -16 -17 -18
leaf_parent=0 12 5 6 11 14 5 10 13 9 16 10 11 12 13 14 15 16
leaf_value=0.013030964534471532 -0.012861610166934316 -0.011772923957217823 0.0020093855515276034 -0.0030877243249844283 -0.013317768681794406 0.012317657836845942 -0.01746794273411589 0.0096058571203188475 -0.0063914007650545017 0.0091864980299744686 -0.0063436762162364354 0.0055207796581089501 -0.0068742440319528768 0.014146122238479365 -0.0088065851081467281 0.0046232975050807005 0.0074189506252022351
leaf_count=101 181 110 194 156 100 175 112 132 104 114 101 140 102 156 159 100 187
internal_value=0 -0.0095536707099839833 0.01881828900499671 0.050542137973964105 -0.068803507875760686 0.06039077095818101 -0.1084668347451845 0.11016016491817925 0.14393434608719238 0.088405093594942946 -0.24386111587425913 0.019677307934978523 -0.21407239091691196 0.24130334785311586 -0.21096709655403631 0.14448550088967468 0.16176774367640581
internal_count=2424 2323 2040 1633 544 285 407 1089 793 505 213 296 283 288 259 401 301
shrinkage=0.05


Tree=28
num_leaves=18
split_feature=136 94 9 93 114 9 112 82 115 73 10 25 8 106 111 30 40
split_gain=6.3763029391957957 12.165187920327366 7.3755723768500117 10.330460349976843 8.9889515609446065 14.773810061537418 7.4810485634129789 3.2651254659500797 3.9354614544480064 4.3024216762142347 2.4573574014930442 2.2938844278038903 1.128716394395294 0.84425014456461511 0.43965028244860349 0.31644864167481579 0.056056779152817704
threshold=-122.31550216674805 -113.55451965332031 42.445163726806641 33.310461044311523 30.235219955444336 28.376187324523926 0.32800455391407013 0.087494213134050369 -83.029659271240234 -82.123420715332031 -82.291641235351562 0.43117029964923859 0.26346409320831299 49.766712188720703 0.72606757283210754 40.198217391967773 0.1432291641831398
decision_type=0 0 0 0 0 0 0 0 0 0 0 0 0 0 0 0 0
left_child=-1 13 3 4 5 -3 -4 10 12 -10 -5 -8 -9 -2 -6 16 -11
right_child=1 2 6 7 14 -7 11 8 9 15 -12 -13 -14 -15 -16 -17 -18
leaf_parent=0 13 5 6 10 14 5 11 12 9 16 10 11 12 13 14 15 16
leaf_value=0.012379416262749399 -0.012218529665173748 -0.006291107596517298 0.0019760369827660422 -0.0033246224238113924 -0.012608133722096682 0.017016979220456311 -0.016659385263919829 0.0077969915900878081 -0.0049016229163568754 0.0084274841211736205 0.0055333410433474808 -0.0062232435192212023 0.013989192053675652 -0.0065305318537296035 -0.0083716553647684138 0.00422043212342496 0.0069387940105137443
leaf_count=101 181 173 192 165 100 112 110 127 104 100 149 101 175 102 158 102 172
internal_value=0 -0.0090759872710248074 0.017877374479875845 0.047711338677199497 -0.065045851246757408 0.057371232174990468 -0.10330922450528252 0.1036776587217229 0.1383400722191884 0.08188017887924505 0.017573574237572918 -0.23327772269881733 0.22770374445923117 -0.2033687716238069 -0.20027402479403703 0.13190936141791829 0.14972213102395043
internal_count=2424 2323 2040 1637 543 285 403 1094 780 478 314 211 302 283 258 374 272
shrinkage=0.05


Tree=29
num_leaves=18
split_feature=145 9 41 9 10 26 133 67 22 141 127 40 103 68 58 92 10
split_gain=5.9355977257062609 3.3068199636794811 2.9524624901778296 3.6338163139820265 4.4911015232158702 3.028993720806886 2.9119625881476088 2.8882858042041555 2.4254580533167616 2.4132505119274268 2.0804205594199034 1.9738209085396405 1.520259996055594 1.0710986304561914 1.0264063496125591 0.62170298008915559 0.36626443184214885
threshold=0.13024305552244186 33.332544326782227 0.63699567317962646 40.540565490722656 -82.291641235351562 0.90760418772697449 0.38209481537342072 0.47765398025512695 212.35749816894531 0.55709633231163025 14.53399658203125 0.08315972238779068 0.067037034779787064 0.61622282862663269 0.11511966213583946 0.35712841153144836 -87.753231048583984
decision_type=0 0 0 0 0 0 0 0 0 0 0 0 0 0 0 0 0
left_child=2 -2 8 4 10 -5 7 13 12 -8 16 -12 -1 15 -11 -3 -4
right_child=1 6 3 5 -6 -7 9 -9 -10 14 11 -13 -14 -15 -16 -17 -18
leaf_parent=12 1 15 16 5 4 5 9 7 8 14 11 11 12 13 14 15 16
leaf_value=-0.0066132929741308608 -0.0031632102401675404 0.0035148064011619206 -0.006275706975513203 0.010998886999570662 0.0046466529770882543 -1.3879676525657242e-05 0.0065115480222434647 -0.00044562518907090027 -0.010489296016136282 -0.0061775738021956307 -0.005851252018174994 0.0038259937263586947 0.00030089399608021434 0.011900384792833466 0.00079709058716183616 0.0083461962640285492 -0.010048344850950285
leaf_count=145 185 105 157 108 167 148 107 120 152 106 109 102 176 141 105 182 109
internal_value=0 0.058096195201608365 -0.041756987256979475 -0.0081394231733348636 -0.048201852379748542 0.092642625299049541 0.084021915756940291 0.12819494982759883 -0.10572275401232863 0.0078998318867488475 -0.097613865568202993 -0.02346304359170498 -0.056446737566283933 0.16663629196096805 -0.054135384964999429 0.13157229213764443 -0.1564327506698612
internal_count=2424 1051 1373 900 644 256 866 548 473 318 477 211 321 428 211 287 266
shrinkage=0.05


Tree=30
num_leaves=19
split_feature=82 9 114 72 136 9 10 93 22 112 23 73 127 10 89 6 70 9
split_gain=5.5345870845107843 5.4470550545612317 12.460098755636425 6.6072695680470286 6.3125941122398146 4.4071081201242661 4.2029098028057348 5.0895045197456854 6.1088860070318596 7.5364793934850782 2.9282861844817045 2.6819468212773998 2.4534182580321513 2.1010151724995727 1.8823569028857328 0.79174962674796845 0.60133652959541628 0.3177230431122493
threshold=0.18133680522441864 28.376187324523926 30.235219955444336 33.746660232543945 -90.307723999023438 39.127145767211914 -86.363845825195312 36.10468864440918 212.35749816894531 0.37234377861022949 10.5 -93.341213226318359 35.010274887084961 -77.392715454101562 0.57662242650985718 0.68528291583061218 0.26325887441635132 32.705795288085938
decision_type=0 0 0 0 0 0 0 0 0 0 0 0 0 0 0 0 0 0
left_child=1 -1 -3 15 5 16 -6 -8 9 13 11 -2 14 -9 -13 -4 -5 -17
right_child=10 2 3 4 6 -7 7 8 -10 -11 -12 12 -14 -15 -16 17 -18 -19
leaf_parent=1 11 2 15 16 6 5 7 13 8 9 10 14 12 13 14 17 16 17
leaf_value=-0.01238090104933055 -0.0040547054140798507 0.0161514806298955 -0.011162236284434312 -0.0073672919798253196 0.0093608335923340367 0.00067757789241640201 0.010397484235533883 0.00051785894792597247 -0.012511201379912915 -0.0086873668513094745 0.011035321863989036 0.0047482914306930992 0.0098055414366026005 0.0095500189856421655 -0.0037357038085900464 -0.0079185597948793675 -0.012476453620313417 -0.004090585699765989
leaf_count=106 124 103 123 134 177 190 109 106 101 129 120 179 137 164 103 117 101 101
internal_value=0 -0.027858717046563831 -0.013783498788168064 -0.036136430793816281 -0.0015129862087113516 -0.099698783124194432 0.051577298382993873 0.012155017425567646 -0.030528220042586325 0.025084001920127628 0.079335776861436766 0.04809364196235523 0.086325816258894794 0.12008119719447913 0.03299054424179361 -0.15909534983358775 -0.19126288859134025 -0.12290097721809641
internal_count=2424 1761 1655 1552 1211 425 786 609 500 399 663 543 419 270 282 341 235 218
shrinkage=0.05



feature importances:
Column_10=46
Column_9=32
Column_114=24
Column_136=21
Column_135=19
Column_1=15
Column_51=15
Column_30=14
Column_72=13
Column_112=13
Column_127=12
Column_131=12
Column_40=11
Column_73=11
Column_93=10
Column_31=10
Column_103=10
Column_133=10
Column_106=9
Column_52=9
Column_94=9
Column_4=8
Column_22=7
Column_19=7
Column_115=7
Column_43=6
Column_64=6
Column_13=6
Column_7=6
Column_17=5
Column_124=5
Column_82=5
Column_145=5
Column_41=5
Column_49=4
Column_80=4
Column_55=4
Column_85=4
Column_50=3
Column_111=3
Column_0=3
Column_3=3
Column_6=3
Column_129=3
Column_105=3
Column_134=3
Column_63=3
Column_143=3
Column_146=2
Column_144=2
Column_89=2
Column_90=2
Column_92=2
Column_141=2
Column_140=2
Column_98=2
Column_108=2
Column_125=2
Column_123=2
Column_119=2
Column_68=2
Column_56=2
Column_58=2
Column_28=2
Column_61=2
Column_25=2
Column_62=2
Column_67=2
Column_70=2
Column_20=2
Column_71=2
Column_8=2
Column_34=1
Column_32=1
Column_38=1
Column_130=1
Column_35=1
Column_29=1
Column_36=1
Column_113=1
Column_26=1
Column_24=1
Column_139=1
Column_23=1
Column_12=1
Column_5=1
Column_2=1
Column_104=1
Column_78=1
Column_76=1
Column_74=1
Column_84=1
Column_87=1
Column_69=1
Column_91=1
Column_66=1
Column_99=1
Column_120=1
Column_59=1
Column_110=1
Column_48=1
Column_47=1
Column_77=1
Column_46=1
Column_42=1
Column_39=1

pandas_categorical:null